<?xml version="1.0"?>
<opencv_storage>
<cascade>
  <stageType>BOOST</stageType>
  <featureType>LBP</featureType>
  <height>33</height>
  <width>25</width>
  <stageParams>
    <boostType>GAB</boostType>
    <minHitRate>9.9900001287460327e-001</minHitRate>
    <maxFalseAlarm>5.0000000000000000e-001</maxFalseAlarm>
    <weightTrimRate>9.4999999999999996e-001</weightTrimRate>
    <maxDepth>1</maxDepth>
    <maxWeakCount>100</maxWeakCount></stageParams>
  <featureParams>
    <maxCatCount>256</maxCatCount>
    <featSize>1</featSize></featureParams>
  <stageNum>19</stageNum>
  <stages>
    <!-- stage 0 -->
    <_>
      <maxWeakCount>3</maxWeakCount>
      <stageThreshold>-9.3323922157287598e-001</stageThreshold>
      <weakClassifiers>
        <_>
          <internalNodes>
            0 -1 10 -572525570 -2100770 -681978662 -2369200 -561263618
            -6648566 -610272257 -2097154</internalNodes>
          <leafValues>
            -9.2464268207550049e-001 9.1019219160079956e-001</leafValues></_>
        <_>
          <internalNodes>
            0 -1 59 -4247280 -4097 -1 -5 -1 -1 -1 -806371345</internalNodes>
          <leafValues>
            -8.1006568670272827e-001 8.3462017774581909e-001</leafValues></_>
        <_>
          <internalNodes>
            0 -1 63 -2098177 -4204069 -787097121 -536874081 -73475649
            -68433746 -1198580801 -1430540626</internalNodes>
          <leafValues>
            -7.7649694681167603e-001 8.0146914720535278e-001</leafValues></_></weakClassifiers></_>
    <!-- stage 1 -->
    <_>
      <maxWeakCount>3</maxWeakCount>
      <stageThreshold>-1.1347104310989380e+000</stageThreshold>
      <weakClassifiers>
        <_>
          <internalNodes>
            0 -1 12 -603984114 -14685425 -647242258 -2138753 -13647921
            -811626357 -100926465 -1025</internalNodes>
          <leafValues>
            -9.2814958095550537e-001 8.3271491527557373e-001</leafValues></_>
        <_>
          <internalNodes>
            0 -1 54 1040170943 534428662 -1589396033 1069422011
            -1081099329 1063255039 -1409830977 -1073763649</internalNodes>
          <leafValues>
            -8.4393501281738281e-001 7.8946131467819214e-001</leafValues></_>
        <_>
          <internalNodes>
            0 -1 25 -3145746 -671649569 -545924118 1063010206 -107218177
            -240136245 -74453057 -257</internalNodes>
          <leafValues>
            -8.4833085536956787e-001 6.3737422227859497e-001</leafValues></_></weakClassifiers></_>
    <!-- stage 2 -->
    <_>
      <maxWeakCount>4</maxWeakCount>
      <stageThreshold>-4.9190086126327515e-001</stageThreshold>
      <weakClassifiers>
        <_>
          <internalNodes>
            0 -1 49 -67110913 -212086565 -946866753 -407645761
            -812657665 -203959841 1073684271 784317999</internalNodes>
          <leafValues>
            -8.7635236978530884e-001 7.9295623302459717e-001</leafValues></_>
        <_>
          <internalNodes>
            0 -1 77 -2097154 -758655866 1075037656 -238040609 -364905688
            -84998136 -675024896 -71307126</internalNodes>
          <leafValues>
            -8.2756751775741577e-001 7.2174441814422607e-001</leafValues></_>
        <_>
          <internalNodes>
            0 -1 18 -285282562 -221264387 -184626945 -17979561 -22031429
            -3195942 -544215105 -1620153</internalNodes>
          <leafValues>
            -8.0899548530578613e-001 6.1950916051864624e-001</leafValues></_>
        <_>
          <internalNodes>
            0 -1 78 -73400353 -115637617 1398003391 -644624249
            -1760053284 -1354593150 -90113908 -1366377170</internalNodes>
          <leafValues>
            -8.3591771125793457e-001 5.9250986576080322e-001</leafValues></_></weakClassifiers></_>
    <!-- stage 3 -->
    <_>
      <maxWeakCount>4</maxWeakCount>
      <stageThreshold>-1.5529204607009888e+000</stageThreshold>
      <weakClassifiers>
        <_>
          <internalNodes>
            0 -1 19 805203726 -264705 989885951 2145319126 -6554113
            -4471813 -272897537 1874851579</internalNodes>
          <leafValues>
            -9.4472360610961914e-001 7.2437751293182373e-001</leafValues></_>
        <_>
          <internalNodes>
            0 -1 0 -539230210 -573057666 -615686145 -2370625 -545529906
            -1328140 2097912831 -67114273</internalNodes>
          <leafValues>
            -7.6146924495697021e-001 6.3041919469833374e-001</leafValues></_>
        <_>
          <internalNodes>
            0 -1 55 -1039467265 34660603 -1081040681 -1600486709
            1958279675 566006203 -366215425 -274732289</internalNodes>
          <leafValues>
            -7.5095796585083008e-001 6.5076136589050293e-001</leafValues></_>
        <_>
          <internalNodes>
            0 -1 27 -282087425 -136892725 1124192531 -570490129
            -503075861 -1072756287 1166144139 -719892745</internalNodes>
          <leafValues>
            -7.6487076282501221e-001 5.6879866123199463e-001</leafValues></_></weakClassifiers></_>
    <!-- stage 4 -->
    <_>
      <maxWeakCount>4</maxWeakCount>
      <stageThreshold>-4.2574408650398254e-001</stageThreshold>
      <weakClassifiers>
        <_>
          <internalNodes>
            0 -1 64 -134220392 -67126386 -167909955 -1314148690 -1 -1
            -1208027137 -1347682305</internalNodes>
          <leafValues>
            -6.8043577671051025e-001 7.9387009143829346e-001</leafValues></_>
        <_>
          <internalNodes>
            0 -1 4 -543162386 -136405988 -1659929122 -585690349
            -393229378 -125173632 -1199329281 -4465921</internalNodes>
          <leafValues>
            -9.2904186248779297e-001 5.7191407680511475e-001</leafValues></_>
        <_>
          <internalNodes>
            0 -1 14 -268458241 -15474084 -1073543245 -238583085
            -930370901 -930889599 -1006530491 -715669422</internalNodes>
          <leafValues>
            -6.6580080986022949e-001 6.3293510675430298e-001</leafValues></_>
        <_>
          <internalNodes>
            0 -1 52 -640287297 -779865964 -1754001093 500531237
            -791286594 -744964086 -1310213985 -1153452102</internalNodes>
          <leafValues>
            -7.9115545749664307e-001 5.5079847574234009e-001</leafValues></_></weakClassifiers></_>
    <!-- stage 5 -->
    <_>
      <maxWeakCount>5</maxWeakCount>
      <stageThreshold>-8.0490803718566895e-001</stageThreshold>
      <weakClassifiers>
        <_>
          <internalNodes>
            0 -1 71 337140989 -1409282 -1342242817 2147180031
            -1107501569 -196612 -1342177281 800787711</internalNodes>
          <leafValues>
            -7.1964561939239502e-001 7.4168062210083008e-001</leafValues></_>
        <_>
          <internalNodes>
            0 -1 104 -470024193 -966597957 -897387326 -1035812630
            -1009851840 -358950197 -2140651328 -1068310462</internalNodes>
          <leafValues>
            -6.6294986009597778e-001 6.5142065286636353e-001</leafValues></_>
        <_>
          <internalNodes>
            0 -1 2 -17629217 -602122 -268501249 -852225 -436305953
            -537442992 -33 -1605645</internalNodes>
          <leafValues>
            -6.2277269363403320e-001 6.8635100126266479e-001</leafValues></_>
        <_>
          <internalNodes>
            0 -1 61 -537405953 -170932481 -1068116739 -169872163
            -538968678 -376514688 -35705590 -240130497</internalNodes>
          <leafValues>
            -6.1639142036437988e-001 6.2942707538604736e-001</leafValues></_>
        <_>
          <internalNodes>
            0 -1 39 -257 169008383 -586113793 -1357205998 -250349121
            35191451 -73733441 -268440837</internalNodes>
          <leafValues>
            -7.2282481193542480e-001 5.7103312015533447e-001</leafValues></_></weakClassifiers></_>
    <!-- stage 6 -->
    <_>
      <maxWeakCount>5</maxWeakCount>
      <stageThreshold>-8.6854344606399536e-001</stageThreshold>
      <weakClassifiers>
        <_>
          <internalNodes>
            0 -1 68 1059741535 532578268 -1077985313 1069488029
            -1073752065 -1073741825 -1073741825 -1</internalNodes>
          <leafValues>
            -6.5657621622085571e-001 7.2266101837158203e-001</leafValues></_>
        <_>
          <internalNodes>
            0 -1 13 -285216769 -352343305 -855642113 -867458318
            -855666945 -1056980233 -990382345 -1067990825</internalNodes>
          <leafValues>
            -6.4509832859039307e-001 6.6692757606506348e-001</leafValues></_>
        <_>
          <internalNodes>
            0 -1 100 -201 -890767185 -1071984176 -1065167646 -111415723
            -1895331323 -438571081 -1042088249</internalNodes>
          <leafValues>
            -6.7311888933181763e-001 6.2008678913116455e-001</leafValues></_>
        <_>
          <internalNodes>
            0 -1 83 -206310412 -115868795 -216969741 -70020513
            -205521956 -338591083 -74974472 2069363318</internalNodes>
          <leafValues>
            -8.2050770521163940e-001 4.2605963349342346e-001</leafValues></_>
        <_>
          <internalNodes>
            0 -1 103 -335548433 -489699966 -50095918 -522783570
            -308544064 -862469753 -221267244 -1057491209</internalNodes>
          <leafValues>
            -6.1301529407501221e-001 5.7442784309387207e-001</leafValues></_></weakClassifiers></_>
    <!-- stage 7 -->
    <_>
      <maxWeakCount>4</maxWeakCount>
      <stageThreshold>-4.5691037178039551e-001</stageThreshold>
      <weakClassifiers>
        <_>
          <internalNodes>
            0 -1 26 -16842770 -12660353 1410749726 -4318946 -63337570
            -123174469 -269504065 -35656721</internalNodes>
          <leafValues>
            -7.5481384992599487e-001 6.7358112335205078e-001</leafValues></_>
        <_>
          <internalNodes>
            0 -1 47 -100663396 -1333161105 -745800715 -536879681
            -2010121988 -1702124629 -1157633796 -1074795538</internalNodes>
          <leafValues>
            -7.2041451930999756e-001 5.1833027601242065e-001</leafValues></_>
        <_>
          <internalNodes>
            0 -1 6 -270534665 -825239962 -469700366 -666711520
            -1054873807 -452468735 1192751104 -165677999</internalNodes>
          <leafValues>
            -6.1962383985519409e-001 5.8900409936904907e-001</leafValues></_>
        <_>
          <internalNodes>
            0 -1 70 -326480166 -1347926916 -716309155 2100840664
            -121901125 -593968901 -606737473 1057623689</internalNodes>
          <leafValues>
            -7.8924632072448730e-001 4.2931389808654785e-001</leafValues></_></weakClassifiers></_>
    <!-- stage 8 -->
    <_>
      <maxWeakCount>6</maxWeakCount>
      <stageThreshold>-1.4392935037612915e+000</stageThreshold>
      <weakClassifiers>
        <_>
          <internalNodes>
            0 -1 34 1156845276 -60522 -198125313 -16114554 -659284837
            -1195309 1212996351 -138874765</internalNodes>
          <leafValues>
            -6.9334149360656738e-001 6.7536062002182007e-001</leafValues></_>
        <_>
          <internalNodes>
            0 -1 28 -15473665 -536892673 -1593719885 1460864586
            -1473535073 -1065680864 -1043209989 -706410553</internalNodes>
          <leafValues>
            -6.5101653337478638e-001 5.4963082075119019e-001</leafValues></_>
        <_>
          <internalNodes>
            0 -1 91 -606601865 -11025577 272704287 -1050180401
            -280563181 -316200960 -905451501 1897394543</internalNodes>
          <leafValues>
            -7.2217333316802979e-001 4.9428552389144897e-001</leafValues></_>
        <_>
          <internalNodes>
            0 -1 74 -2075459585 -1933123113 -414564865 -1375449121
            -1581004289 531230395 -1147622401 -5514241</internalNodes>
          <leafValues>
            -7.1246069669723511e-001 4.4643351435661316e-001</leafValues></_>
        <_>
          <internalNodes>
            0 -1 58 -902267141 -7841545 -1086196353 -16053090 -610074689
            -38217553 -1978992129 -1088747089</internalNodes>
          <leafValues>
            -5.6291699409484863e-001 5.8515149354934692e-001</leafValues></_>
        <_>
          <internalNodes>
            0 -1 21 -1057 -368383025 -1605922730 -792536759 -615777533
            1224960534 -496504828 -179834525</internalNodes>
          <leafValues>
            -6.2498080730438232e-001 5.5705183744430542e-001</leafValues></_></weakClassifiers></_>
    <!-- stage 9 -->
    <_>
      <maxWeakCount>7</maxWeakCount>
      <stageThreshold>-1.3864661455154419e+000</stageThreshold>
      <weakClassifiers>
        <_>
          <internalNodes>
            0 -1 76 2117119 -58690308 -1718485025 2110749908 -1422210049
            -73164111 -1123426389 522849531</internalNodes>
          <leafValues>
            -7.0744335651397705e-001 6.6038823127746582e-001</leafValues></_>
        <_>
          <internalNodes>
            0 -1 98 -137 -848965291 -2144745828 -521811480 -933108491
            -370886459 -973748864 -1060772377</internalNodes>
          <leafValues>
            -5.9254395961761475e-001 5.7631027698516846e-001</leafValues></_>
        <_>
          <internalNodes>
            0 -1 32 -828445042 -537419013 -1861494809 -706350993
            -116278357 -1164582755 -83631185 -335813813</internalNodes>
          <leafValues>
            -7.0554620027542114e-001 4.8894035816192627e-001</leafValues></_>
        <_>
          <internalNodes>
            0 -1 101 -3149377 -422646785 -1642110238 -1596134456
            -70538717 1175690276 -208756746 -530065457</internalNodes>
          <leafValues>
            -7.0944660902023315e-001 4.1734132170677185e-001</leafValues></_>
        <_>
          <internalNodes>
            0 -1 5 -136642562 2074006554 -254651621 -204277805
            -1121996641 572566067 -629154663 1943796735</internalNodes>
          <leafValues>
            -7.8994768857955933e-001 3.7176379561424255e-001</leafValues></_>
        <_>
          <internalNodes>
            0 -1 67 -8651014 -2003239788 -179966313 -1164278125
            -653675841 -1538459361 -279975202 -269488129</internalNodes>
          <leafValues>
            -6.6529291868209839e-001 4.5057895779609680e-001</leafValues></_>
        <_>
          <internalNodes>
            0 -1 24 -2097281 -328280953 -669559904 -1225925827 -82851039
            1160613936 -205033182 -167782481</internalNodes>
          <leafValues>
            -6.5339171886444092e-001 5.0425171852111816e-001</leafValues></_></weakClassifiers></_>
    <!-- stage 10 -->
    <_>
      <maxWeakCount>7</maxWeakCount>
      <stageThreshold>-9.7874557971954346e-001</stageThreshold>
      <weakClassifiers>
        <_>
          <internalNodes>
            0 -1 73 -783157929 1414906065 1363533267 -245517083
            -262941417 -44768188 1073690559 -1426440257</internalNodes>
          <leafValues>
            -6.7339217662811279e-001 6.6068845987319946e-001</leafValues></_>
        <_>
          <internalNodes>
            0 -1 90 -571474157 -36318010 -1060602955 -2140115
            -1131828835 549552283 428379293 93684121</internalNodes>
          <leafValues>
            -5.8955228328704834e-001 5.4809278249740601e-001</leafValues></_>
        <_>
          <internalNodes>
            0 -1 22 -1 -218838022 981329559 -20513241 -427837155
            1081440015 -239610105 -182979209</internalNodes>
          <leafValues>
            -4.8413392901420593e-001 6.4529621601104736e-001</leafValues></_>
        <_>
          <internalNodes>
            0 -1 56 -132621573 39052533 -2058850901 216747230 -282347585
            531267803 -1414916677 -805604353</internalNodes>
          <leafValues>
            -6.6463381052017212e-001 4.5141988992691040e-001</leafValues></_>
        <_>
          <internalNodes>
            0 -1 36 752044279 -28307233 -1122831905 2051150303 -87467781
            -118467943 -1993803365 992030911</internalNodes>
          <leafValues>
            -7.4957960844039917e-001 3.8127666711807251e-001</leafValues></_>
        <_>
          <internalNodes>
            0 -1 96 -262410421 -89930990 -1073490569 -254631921
            -842842101 -1970552448 -1035828518 -1035798965</internalNodes>
          <leafValues>
            -5.4421895742416382e-001 5.7907003164291382e-001</leafValues></_>
        <_>
          <internalNodes>
            0 -1 38 2080176125 -102934640 -653864329 -581168815
            -836074529 -93159413 -2113353622 -1409548293</internalNodes>
          <leafValues>
            -6.5350633859634399e-001 4.8742243647575378e-001</leafValues></_></weakClassifiers></_>
    <!-- stage 11 -->
    <_>
      <maxWeakCount>6</maxWeakCount>
      <stageThreshold>-7.3406791687011719e-001</stageThreshold>
      <weakClassifiers>
        <_>
          <internalNodes>
            0 -1 62 -67372220 1977041591 -786449420 2134630399
            -1081099504 -1286242287 -811664444 -20971777</internalNodes>
          <leafValues>
            -7.7760374546051025e-001 6.2204068899154663e-001</leafValues></_>
        <_>
          <internalNodes>
            0 -1 99 -67109065 -1890585760 -1560088217 -1385824427
            -1400266018 -611597821 -358292802 -1073684416</internalNodes>
          <leafValues>
            -5.7670903205871582e-001 5.0660765171051025e-001</leafValues></_>
        <_>
          <internalNodes>
            0 -1 42 -1210731077 357990868 -993685067 361833745
            -1804562245 281788825 -1730834185 -1145593675</internalNodes>
          <leafValues>
            -7.5492697954177856e-001 4.1444993019104004e-001</leafValues></_>
        <_>
          <internalNodes>
            0 -1 11 -698421666 -123960593 -922119581 -107610401
            -1064654118 -937702706 -863450981 -799547049</internalNodes>
          <leafValues>
            -6.0027170181274414e-001 4.5631030201911926e-001</leafValues></_>
        <_>
          <internalNodes>
            0 -1 43 -595030321 -891822089 -687759989 -1474334305
            -930379620 -2101638337 -346324072 -121635841</internalNodes>
          <leafValues>
            -5.6865650415420532e-001 4.7888371348381042e-001</leafValues></_>
        <_>
          <internalNodes>
            0 -1 84 -140773861 -250490349 1426285343 -46926437 -94905251
            -612155218 -1930031988 -1192566785</internalNodes>
          <leafValues>
            -6.9907456636428833e-001 4.3997779488563538e-001</leafValues></_></weakClassifiers></_>
    <!-- stage 12 -->
    <_>
      <maxWeakCount>7</maxWeakCount>
      <stageThreshold>-1.2111045122146606e+000</stageThreshold>
      <weakClassifiers>
        <_>
          <internalNodes>
            0 -1 46 2077220632 -2126922 1507836893 1033077482
            -1817979974 -1474166617 1066566395 715849211</internalNodes>
          <leafValues>
            -6.8678158521652222e-001 6.2689924240112305e-001</leafValues></_>
        <_>
          <internalNodes>
            0 -1 33 -1043344385 -578102390 1073988815 -103882528
            -1936744305 1493952774 -1047952243 -707929739</internalNodes>
          <leafValues>
            -6.1713176965713501e-001 4.7114571928977966e-001</leafValues></_>
        <_>
          <internalNodes>
            0 -1 15 -805307393 -335823142 -296681773 -1040188173
            -1946177605 -857768111 1246948542 -1073490880</internalNodes>
          <leafValues>
            -5.1340502500534058e-001 5.4812490940093994e-001</leafValues></_>
        <_>
          <internalNodes>
            0 -1 106 -201326641 -1040004449 -1496432614 -1032660874
            -1412961700 -1063153402 -421354768 -1024202006</internalNodes>
          <leafValues>
            -5.9660774469375610e-001 4.6482115983963013e-001</leafValues></_>
        <_>
          <internalNodes>
            0 -1 51 -1122435075 425583569 -1155902500 459233109
            -675621922 -749486079 -1181199426 977239677</internalNodes>
          <leafValues>
            -6.9165343046188354e-001 4.0385383367538452e-001</leafValues></_>
        <_>
          <internalNodes>
            0 -1 45 -526354436 -142073092 -732308260 1024065759
            -86909461 -5582183 -1461921557 791349499</internalNodes>
          <leafValues>
            -7.6129949092864990e-001 3.6019593477249146e-001</leafValues></_>
        <_>
          <internalNodes>
            0 -1 65 -993527009 -1497133245 -716115586 -1431316635
            -989893756 -2068853886 610935570 -50855954</internalNodes>
          <leafValues>
            -6.0879027843475342e-001 4.7198975086212158e-001</leafValues></_></weakClassifiers></_>
    <!-- stage 13 -->
    <_>
      <maxWeakCount>7</maxWeakCount>
      <stageThreshold>-1.2840111255645752e+000</stageThreshold>
      <weakClassifiers>
        <_>
          <internalNodes>
            0 -1 81 581848318 -130524718 1427133693 2042122396
            -1698637365 -109973352 -1689979493 194661533</internalNodes>
          <leafValues>
            -6.9847047328948975e-001 6.2564891576766968e-001</leafValues></_>
        <_>
          <internalNodes>
            0 -1 87 -251399169 -216952813 5313011 -709296057 -149947452
            -654256188 -314513184 -1090389005</internalNodes>
          <leafValues>
            -6.4943039417266846e-001 4.8344174027442932e-001</leafValues></_>
        <_>
          <internalNodes>
            0 -1 85 -898961750 -1442521046 1151462248 -1368472406
            -928783733 -80576375 -1151664756 -1059282</internalNodes>
          <leafValues>
            -8.0789721012115479e-001 3.7489402294158936e-001</leafValues></_>
        <_>
          <internalNodes>
            0 -1 72 -539495629 -8928937 1078030361 -556432429 -990940865
            -831561647 1283040575 1968026163</internalNodes>
          <leafValues>
            -6.5562146902084351e-001 3.9305442571640015e-001</leafValues></_>
        <_>
          <internalNodes>
            0 -1 89 -939555905 -7224159 1149337757 1703379237
            -1735554625 -1291566848 -1710733138 1359283332</internalNodes>
          <leafValues>
            -6.7437434196472168e-001 3.9724931120872498e-001</leafValues></_>
        <_>
          <internalNodes>
            0 -1 7 -4457553 -976889459 -2099003272 -790929136 -267394985
            1199608322 -468986880 -746588381</internalNodes>
          <leafValues>
            -6.0175335407257080e-001 4.7943216562271118e-001</leafValues></_>
        <_>
          <internalNodes>
            0 -1 69 -2078618626 -1934966132 -1526625411 1605010762
            960727503 -619978045 -617772093 -2126145</internalNodes>
          <leafValues>
            -5.8375096321105957e-001 4.6712398529052734e-001</leafValues></_></weakClassifiers></_>
    <!-- stage 14 -->
    <_>
      <maxWeakCount>8</maxWeakCount>
      <stageThreshold>-1.2982132434844971e+000</stageThreshold>
      <weakClassifiers>
        <_>
          <internalNodes>
            0 -1 30 -292681694 -401372639 -213711781 -803921839
            -1442153541 -99303407 -72455265 1880353311</internalNodes>
          <leafValues>
            -6.5249264240264893e-001 6.1519056558609009e-001</leafValues></_>
        <_>
          <internalNodes>
            0 -1 60 320782777 -671394531 84242847 -671540835 1665896639
            -1692709999 -1683638017 -1724339044</internalNodes>
          <leafValues>
            -5.7422763109207153e-001 4.8052716255187988e-001</leafValues></_>
        <_>
          <internalNodes>
            0 -1 79 -84550183 -536914946 -65 -176257 -33620103 -32818
            -16842803 -1360089176</internalNodes>
          <leafValues>
            -5.0634819269180298e-001 5.4933327436447144e-001</leafValues></_>
        <_>
          <internalNodes>
            0 -1 107 -1007222785 -488456985 -1087921154 -1596641545
            -4181 -152175117 -35127609 -789063681</internalNodes>
          <leafValues>
            -4.9284517765045166e-001 5.6228822469711304e-001</leafValues></_>
        <_>
          <internalNodes>
            0 -1 3 -2135968033 -380688301 144648267 -1216622569
            -930965337 -1346389337 -871638905 -996683551</internalNodes>
          <leafValues>
            -5.3826808929443359e-001 5.0452816486358643e-001</leafValues></_>
        <_>
          <internalNodes>
            0 -1 97 -278853 2138259120 2134867761 1498431035 -63259462
            1060224368 -46989317 -335351937</internalNodes>
          <leafValues>
            -5.1547390222549438e-001 5.5963528156280518e-001</leafValues></_>
        <_>
          <internalNodes>
            0 -1 66 1360057813 167818254 38261509 2132321234 1009641739
            67081551 -804547189 -536877089</internalNodes>
          <leafValues>
            -5.6270658969879150e-001 5.1201164722442627e-001</leafValues></_>
        <_>
          <internalNodes>
            0 -1 37 -1040975873 -786759597 1095848068 1364291664
            303292670 -1929297918 -202916600 1875895807</internalNodes>
          <leafValues>
            -6.6043323278427124e-001 4.5445835590362549e-001</leafValues></_></weakClassifiers></_>
    <!-- stage 15 -->
    <_>
      <maxWeakCount>7</maxWeakCount>
      <stageThreshold>-9.9062877893447876e-001</stageThreshold>
      <weakClassifiers>
        <_>
          <internalNodes>
            0 -1 35 101208668 305808209 -2116931113 1946055550 129344166
            -1191984655 -1543055913 717189591</internalNodes>
          <leafValues>
            -7.5937497615814209e-001 6.1939060688018799e-001</leafValues></_>
        <_>
          <internalNodes>
            0 -1 75 -5190403 -459272 -4194819 -4571939 1559944447
            -17113601 -1074266113 -1079304709</internalNodes>
          <leafValues>
            -4.1958618164062500e-001 6.4898318052291870e-001</leafValues></_>
        <_>
          <internalNodes>
            0 -1 16 -827331617 -268769294 -319102989 -503579504
            -391148101 -805372033 1213043167 -984165344</internalNodes>
          <leafValues>
            -4.8700571060180664e-001 5.4070347547531128e-001</leafValues></_>
        <_>
          <internalNodes>
            0 -1 105 -529409 -2057132001 -1006481388 1650638438
            -1299527016 -533293034 -1073656240 -1068320058</internalNodes>
          <leafValues>
            -6.0747909545898438e-001 4.5195874571800232e-001</leafValues></_>
        <_>
          <internalNodes>
            0 -1 9 -1685127013 1459720539 1771411455 1066861835
            331432095 -1455357940 1002121642 8388776</internalNodes>
          <leafValues>
            -6.6550725698471069e-001 3.9532083272933960e-001</leafValues></_>
        <_>
          <internalNodes>
            0 -1 48 -939655431 -23575463 1074386907 -665579250
            -1898804289 -1080488566 143174890 1209532557</internalNodes>
          <leafValues>
            -5.9954434633255005e-001 4.2949423193931580e-001</leafValues></_>
        <_>
          <internalNodes>
            0 -1 41 -799551278 -1862172670 1416995283 -1266445549
            -787971335 -1862270972 -858750754 -2098346790</internalNodes>
          <leafValues>
            -5.9299117326736450e-001 4.5939236879348755e-001</leafValues></_></weakClassifiers></_>
    <!-- stage 16 -->
    <_>
      <maxWeakCount>7</maxWeakCount>
      <stageThreshold>-1.2545514106750488e+000</stageThreshold>
      <weakClassifiers>
        <_>
          <internalNodes>
            0 -1 31 2097659802 -937234211 -682892132 -402087902
            -1013851720 780489 -58087270 66047711</internalNodes>
          <leafValues>
            -6.7822879552841187e-001 6.1847448348999023e-001</leafValues></_>
        <_>
          <internalNodes>
            0 -1 82 1396962128 -615007457 18972795 1763412571 571182957
            -1364540765 -1060381697 1396947779</internalNodes>
          <leafValues>
            -6.7540931701660156e-001 4.1304641962051392e-001</leafValues></_>
        <_>
          <internalNodes>
            0 -1 29 -384325709 -117333293 -2147479007 -786757105
            -419188979 -1006485488 -1006568997 -714485761</internalNodes>
          <leafValues>
            -4.9816662073135376e-001 5.2232599258422852e-001</leafValues></_>
        <_>
          <internalNodes>
            0 -1 102 -351279121 -2058124989 -2130546342 -1470916349
            1132307076 -1920875904 1390733797 -1059787869</internalNodes>
          <leafValues>
            -6.1920982599258423e-001 4.3459445238113403e-001</leafValues></_>
        <_>
          <internalNodes>
            0 -1 88 -800137001 -759087030 -1073070063 -794439579
            407786751 2014347979 -1629481985 -1095057409</internalNodes>
          <leafValues>
            -7.3045331239700317e-001 3.7106049060821533e-001</leafValues></_>
        <_>
          <internalNodes>
            0 -1 20 -403703857 -494779581 1343228160 -192023934
            -745820154 1326385206 -225975517 -139986087</internalNodes>
          <leafValues>
            -6.2901580333709717e-001 4.2764410376548767e-001</leafValues></_>
        <_>
          <internalNodes>
            0 -1 92 -539524545 -515505787 1098919955 1951252623
            -1072487525 -1609562102 51357883 2002227871</internalNodes>
          <leafValues>
            -6.7069715261459351e-001 4.0949484705924988e-001</leafValues></_></weakClassifiers></_>
    <!-- stage 17 -->
    <_>
      <maxWeakCount>7</maxWeakCount>
      <stageThreshold>-8.8408452272415161e-001</stageThreshold>
      <weakClassifiers>
        <_>
          <internalNodes>
            0 -1 57 503994904 -3149065 -1862014501 -1082400837
            -1608499125 4292744 -803159885 946569333</internalNodes>
          <leafValues>
            -7.1179729700088501e-001 6.0784858465194702e-001</leafValues></_>
        <_>
          <internalNodes>
            0 -1 40 1903655219 2032091177 430993887 -75120353 -773437253
            -1195798277 -627328321 822798651</internalNodes>
          <leafValues>
            -5.4259872436523438e-001 4.9751821160316467e-001</leafValues></_>
        <_>
          <internalNodes>
            0 -1 93 -740828877 -66074593 -2147249519 -204111743
            -2096529389 -326598653 -1014120261 271111432</internalNodes>
          <leafValues>
            -7.0522415637969971e-001 3.9843368530273438e-001</leafValues></_>
        <_>
          <internalNodes>
            0 -1 53 9649631 -502265893 102687 -519401134 5342155
            -1433917406 -984483663 -269484289</internalNodes>
          <leafValues>
            -4.8338058590888977e-001 5.6198436021804810e-001</leafValues></_>
        <_>
          <internalNodes>
            0 -1 50 -202054657 -716914287 -1023225803 -218042095
            1645085166 1091702785 -1566399484 -548405797</internalNodes>
          <leafValues>
            -5.3479617834091187e-001 4.9105948209762573e-001</leafValues></_>
        <_>
          <internalNodes>
            0 -1 108 -632300549 1726447477 1843375916 -1064497537
            -39334145 -177275949 -707264533 -454299921</internalNodes>
          <leafValues>
            -5.0121897459030151e-001 5.5878180265426636e-001</leafValues></_>
        <_>
          <internalNodes>
            0 -1 80 -1709771009 -2135391277 -268413995 -395269165
            -749522047 -1677473727 -264139712 -1203505</internalNodes>
          <leafValues>
            -5.4444670677185059e-001 5.0944948196411133e-001</leafValues></_></weakClassifiers></_>
    <!-- stage 18 -->
    <_>
      <maxWeakCount>8</maxWeakCount>
      <stageThreshold>-1.4716836214065552e+000</stageThreshold>
      <weakClassifiers>
        <_>
          <internalNodes>
            0 -1 8 -425464065 -150995217 -286343425 -1398620434
            -146538561 -1 2013265919 -98074801</internalNodes>
          <leafValues>
            -4.3017327785491943e-001 6.6442334651947021e-001</leafValues></_>
        <_>
          <internalNodes>
            0 -1 23 -757833657 -78166781 -1809940463 -572501675
            -208994279 1797980294 -99909429 2004341243</internalNodes>
          <leafValues>
            -5.5602830648422241e-001 4.8998108506202698e-001</leafValues></_>
        <_>
          <internalNodes>
            0 -1 94 -741355241 -3700655 -2071787495 -750286841
            -378288096 -70418432 -1035746559 -1071521487</internalNodes>
          <leafValues>
            -6.7605906724929810e-001 3.9264005422592163e-001</leafValues></_>
        <_>
          <internalNodes>
            0 -1 17 -256972369 -268415529 -805031655 1359024384
            -134171974 -805302112 -72687442 1880191178</internalNodes>
          <leafValues>
            -5.8446341753005981e-001 4.6997767686843872e-001</leafValues></_>
        <_>
          <internalNodes>
            0 -1 1 -183503885 549622002 1107345440 -1898844134
            -2133888585 -1997278685 -799952736 -940050441</internalNodes>
          <leafValues>
            -5.4762196540832520e-001 4.7121673822402954e-001</leafValues></_>
        <_>
          <internalNodes>
            0 -1 44 -933311273 -2012689706 -1056452171 1665271767
            -334765941 9078237 -779844945 -616621109</internalNodes>
          <leafValues>
            -6.8399661779403687e-001 3.6091151833534241e-001</leafValues></_>
        <_>
          <internalNodes>
            0 -1 86 -712638467 -1018052603 1073856759 1095877833 668664
            -855490035 276969230 -1363203413</internalNodes>
          <leafValues>
            -7.0495730638504028e-001 3.4961083531379700e-001</leafValues></_>
        <_>
          <internalNodes>
            0 -1 95 -146014737 -737172839 -770694926 1917866069
            -86402326 151756936 -232288046 -1035798821</internalNodes>
          <leafValues>
            -4.9768885970115662e-001 5.2727115154266357e-001</leafValues></_></weakClassifiers></_></stages>
  <features>
    <_>
      <rect>
        0 2 8 4</rect></_>
    <_>
      <rect>
        0 8 2 3</rect></_>
    <_>
      <rect>
        0 17 5 3</rect></_>
    <_>
      <rect>
        1 0 3 4</rect></_>
    <_>
      <rect>
        1 4 8 3</rect></_>
    <_>
      <rect>
        1 9 5 7</rect></_>
    <_>
      <rect>
        1 14 1 2</rect></_>
    <_>
      <rect>
        1 16 1 1</rect></_>
    <_>
      <rect>
        1 19 5 1</rect></_>
    <_>
      <rect>
        1 21 8 4</rect></_>
    <_>
      <rect>
        2 1 7 5</rect></_>
    <_>
      <rect>
        2 3 2 8</rect></_>
    <_>
      <rect>
        2 5 7 2</rect></_>
    <_>
      <rect>
        2 6 2 6</rect></_>
    <_>
      <rect>
        2 10 2 4</rect></_>
    <_>
      <rect>
        2 11 1 4</rect></_>
    <_>
      <rect>
        2 12 1 4</rect></_>
    <_>
      <rect>
        2 15 4 1</rect></_>
    <_>
      <rect>
        2 16 4 2</rect></_>
    <_>
      <rect>
        2 16 7 2</rect></_>
    <_>
      <rect>
        2 17 1 1</rect></_>
    <_>
      <rect>
        2 17 1 2</rect></_>
    <_>
      <rect>
        2 17 1 3</rect></_>
    <_>
      <rect>
        2 17 3 3</rect></_>
    <_>
      <rect>
        2 18 1 1</rect></_>
    <_>
      <rect>
        2 18 7 2</rect></_>
    <_>
      <rect>
        3 4 5 3</rect></_>
    <_>
      <rect>
        3 7 2 5</rect></_>
    <_>
      <rect>
        3 8 2 4</rect></_>
    <_>
      <rect>
        3 9 2 4</rect></_>
    <_>
      <rect>
        3 10 2 5</rect></_>
    <_>
      <rect>
        3 12 6 2</rect></_>
    <_>
      <rect>
        4 2 5 3</rect></_>
    <_>
      <rect>
        4 7 2 3</rect></_>
    <_>
      <rect>
        4 17 3 2</rect></_>
    <_>
      <rect>
        5 10 5 5</rect></_>
    <_>
      <rect>
        5 16 3 1</rect></_>
    <_>
      <rect>
        6 5 6 8</rect></_>
    <_>
      <rect>
        6 8 4 7</rect></_>
    <_>
      <rect>
        6 12 4 2</rect></_>
    <_>
      <rect>
        7 0 6 3</rect></_>
    <_>
      <rect>
        7 10 5 3</rect></_>
    <_>
      <rect>
        7 11 5 3</rect></_>
    <_>
      <rect>
        7 13 2 1</rect></_>
    <_>
      <rect>
        7 14 3 1</rect></_>
    <_>
      <rect>
        7 15 2 1</rect></_>
    <_>
      <rect>
        7 16 5 3</rect></_>
    <_>
      <rect>
        7 17 6 3</rect></_>
    <_>
      <rect>
        7 18 3 1</rect></_>
    <_>
      <rect>
        8 5 4 6</rect></_>
    <_>
      <rect>
        8 6 4 8</rect></_>
    <_>
      <rect>
        8 8 4 6</rect></_>
    <_>
      <rect>
        8 9 5 4</rect></_>
    <_>
      <rect>
        8 11 2 2</rect></_>
    <_>
      <rect>
        8 11 4 3</rect></_>
    <_>
      <rect>
        8 12 3 2</rect></_>
    <_>
      <rect>
        8 13 2 1</rect></_>
    <_>
      <rect>
        8 14 4 3</rect></_>
    <_>
      <rect>
        8 15 2 1</rect></_>
    <_>
      <rect>
        8 15 5 3</rect></_>
    <_>
      <rect>
        8 21 3 2</rect></_>
    <_>
      <rect>
        9 4 5 8</rect></_>
    <_>
      <rect>
        9 6 4 2</rect></_>
    <_>
      <rect>
        9 7 4 5</rect></_>
    <_>
      <rect>
        9 11 5 6</rect></_>
    <_>
      <rect>
        9 12 1 1</rect></_>
    <_>
      <rect>
        9 12 2 2</rect></_>
    <_>
      <rect>
        9 12 3 2</rect></_>
    <_>
      <rect>
        9 13 3 3</rect></_>
    <_>
      <rect>
        9 14 2 1</rect></_>
    <_>
      <rect>
        9 15 2 1</rect></_>
    <_>
      <rect>
        9 16 2 1</rect></_>
    <_>
      <rect>
        10 0 5 8</rect></_>
    <_>
      <rect>
        10 7 3 5</rect></_>
    <_>
      <rect>
        10 13 2 1</rect></_>
    <_>
      <rect>
        10 15 1 1</rect></_>
    <_>
      <rect>
        10 16 2 1</rect></_>
    <_>
      <rect>
        11 4 4 9</rect></_>
    <_>
      <rect>
        11 7 3 3</rect></_>
    <_>
      <rect>
        11 9 2 1</rect></_>
    <_>
      <rect>
        11 12 2 2</rect></_>
    <_>
      <rect>
        11 16 2 1</rect></_>
    <_>
      <rect>
        12 1 3 4</rect></_>
    <_>
      <rect>
        12 4 3 4</rect></_>
    <_>
      <rect>
        12 6 2 4</rect></_>
    <_>
      <rect>
        12 13 2 1</rect></_>
    <_>
      <rect>
        13 3 2 8</rect></_>
    <_>
      <rect>
        13 7 3 3</rect></_>
    <_>
      <rect>
        14 7 1 5</rect></_>
    <_>
      <rect>
        14 13 3 2</rect></_>
    <_>
      <rect>
        14 16 3 1</rect></_>
    <_>
      <rect>
        15 3 3 6</rect></_>
    <_>
      <rect>
        16 9 2 4</rect></_>
    <_>
      <rect>
        17 14 2 2</rect></_>
    <_>
      <rect>
        18 3 2 8</rect></_>
    <_>
      <rect>
        18 9 1 1</rect></_>
    <_>
      <rect>
        19 5 1 3</rect></_>
    <_>
      <rect>
        19 6 1 5</rect></_>
    <_>
      <rect>
        19 12 2 5</rect></_>
    <_>
      <rect>
        20 11 1 5</rect></_>
    <_>
      <rect>
        20 17 1 2</rect></_>
    <_>
      <rect>
        20 18 1 1</rect></_>
    <_>
      <rect>
        20 18 1 3</rect></_>
    <_>
      <rect>
        20 20 1 2</rect></_>
    <_>
      <rect>
        21 13 1 3</rect></_>
    <_>
      <rect>
        21 14 1 3</rect></_>
    <_>
      <rect>
        21 15 1 2</rect></_>
    <_>
      <rect>
        21 22 1 1</rect></_>
    <_>
      <rect>
        21 23 1 1</rect></_></features></cascade>
</opencv_storage>
